//Numpy array shape [3, 50]
//Min -1.006892919540
//Max 1.001881003380
//Number of zeros 0

#ifndef W2_H_
#define W2_H_

#ifndef __SYNTHESIS__
fc1_weight_t w2[150];
#else
fc1_weight_t w2[150] = {-0.8910577893, 0.9931203723, 0.0892950892, -0.1086018533, -0.8592986465, 0.5965449214, -0.5938325524, 0.6268741488, -0.5349765420, -0.1421989202, 0.5664506555, -0.1231990606, 0.9600902200, -0.0389212444, -0.6966515183, 0.5522699356, 0.2456495315, 0.1509392411, -1.0068929195, 0.2961710989, 0.6273935437, -0.1251464188, -0.0932563096, -0.4416061342, -0.6200334430, -0.5478599072, 0.6476196647, -0.0086735357, 0.8404685259, -0.2758461237, -0.0126112448, 0.0083734607, 0.9793902040, -0.0542592146, -0.3447522521, 0.1668453068, -0.8875291944, 0.2309921235, -0.9137415290, -0.0959495679, 0.2143933028, 0.5146603584, 0.1599122435, 0.9675011039, -0.5777263641, -0.9010039568, 0.1579551995, -0.5868071318, 0.4649024904, 0.3793231845, 1.0018810034, -0.9405217171, -0.6495475173, -0.0737857074, -0.5530139804, 0.3867319226, -0.4256602526, 0.4427578449, 0.5398179293, 0.2183502167, 0.8829515576, -0.9193655252, -0.9643499851, -0.8770859838, -0.9244825244, -0.4852725565, 0.9922581911, 0.8068191409, -0.7550878525, 0.5268444419, -0.8265812397, -0.5199209452, 0.9696694613, 0.6178457141, -0.6421665549, -0.3633498251, 0.0154771823, -0.0873846710, 0.0759016797, 0.0633036196, 0.3297449946, 0.0292972662, 0.5344148278, -0.7983624935, -0.3375483751, -0.4028959572, -0.9789969325, 0.1699279249, -0.5690553784, 0.4974085391, -0.5086339116, -0.2382996976, -0.9482317567, 0.8053774238, -0.6415184140, -0.4867218435, -0.7544713020, 0.3741012812, 0.4815833569, 0.9494578242, 0.2868484259, 0.0273942687, -0.3591287732, -0.3595077097, 0.0987056270, 0.9852805734, -0.0633392259, 0.1847259551, -0.8750900626, -0.8022384644, -0.7058040500, 0.3584067225, 0.8616416454, 0.1864067614, -0.0920602903, 0.9622921348, 0.3635942340, 0.5560758710, -0.8916198611, 0.8691307306, -0.9633136988, -0.0528985448, -0.3715109527, -0.5595171452, 0.7773321867, -0.9383592606, 0.8188210130, -0.6282567382, 0.5713552237, -0.2403766662, 0.7179036140, -0.4521934390, -0.8559567928, 0.6917369962, 0.7630327940, -0.7057554126, 0.2757285833, -0.4687088132, 0.0575917102, 0.2267729491, -0.2094264627, 0.5088435411, -0.4780608416, -0.5192331076, 0.9537646174, 0.8916314244, 0.0686476529, -0.6289066076, -0.2217159569, -0.8090616465};
#endif

#endif
