//Numpy array shape [50, 3]
//Min -0.264901369810
//Max 0.270650565624
//Number of zeros 0

#ifndef W8_H_
#define W8_H_

#ifndef __SYNTHESIS__
output_weight_t w8[150];
#else
output_weight_t w8[150] = {0.0926868767, 0.0434802771, -0.1918040365, 0.0000123881, -0.1173270941, -0.0430575684, -0.0525582619, 0.1304327846, 0.1239982769, 0.2372699380, -0.1918998212, 0.0939145386, 0.0101557504, -0.1339092702, 0.1125974506, 0.1305627674, -0.1956216991, -0.2373134494, -0.0205960255, 0.1210614443, 0.0251699556, -0.2507255077, -0.2195802778, 0.2147273123, -0.1080342233, 0.0169604141, 0.2412251532, -0.0542960502, 0.1513062418, -0.1208920255, 0.0868050009, 0.0121497549, 0.0850551873, 0.2706505656, 0.1044469625, 0.0109108165, -0.2476765215, 0.2356704175, 0.0469496474, -0.0677162558, 0.2104757577, -0.0589610040, -0.0410816744, -0.1850207597, 0.0722635910, 0.0020236820, -0.0337621234, -0.1561869383, 0.1794170290, 0.2128642797, -0.2447884232, 0.1962106675, 0.1731604934, 0.0393695198, -0.1780371368, 0.2632325590, 0.1148561239, 0.0011962975, 0.1291607022, 0.1212693825, -0.2277440429, 0.2344949245, -0.0499980636, -0.2374636978, 0.0803859979, -0.1270013601, -0.2487749308, 0.0647700280, 0.1326782256, 0.1590743959, -0.2649013698, -0.2641693056, 0.1513890326, 0.0863741636, -0.1630775034, 0.0916960984, -0.0561980829, -0.0788865983, 0.0494255796, -0.1464805454, 0.1666172445, -0.2473851591, -0.0521320216, 0.0480936021, -0.2267177552, -0.1802977324, -0.0617291108, 0.0090833474, -0.1814055294, -0.0526441596, -0.0062072282, -0.2055732459, -0.1614990830, 0.0260927994, -0.1195007116, 0.0505423136, -0.0655492023, 0.1851297766, -0.1910515428, -0.1462204605, -0.2080599815, 0.0243570674, 0.0572354347, 0.2212584466, -0.0220107902, 0.1282158047, 0.0607544333, 0.1938042045, 0.1179002896, 0.1957185715, 0.0947190151, 0.2599413693, 0.1337909400, -0.0381520204, -0.0413212739, -0.0496136844, 0.0000045762, -0.0083840685, -0.2190261930, 0.1492632180, -0.1039598808, 0.1256989837, -0.1150521189, 0.2301017493, 0.0300911218, -0.2078150809, -0.1986171603, -0.2174260318, 0.0496786050, -0.0000831536, 0.2093769610, 0.0109237330, 0.0542612448, -0.1833062172, 0.1105261445, 0.0755547583, -0.0326239243, -0.0408041067, -0.2555781603, -0.0343489386, -0.1487440467, 0.1531917006, 0.0061865239, 0.2560956776, -0.1042461023, -0.1814902127, -0.0793644115, -0.0444832295, -0.1678485125, 0.0644510835};
#endif

#endif
